{
    "models": [
        {
            "weights": [
                0.08776567026681634,
                -1.6924312400318184,
                -0.08426406579619677
            ],
            "bias": -1.7922302721313905,
            "time": "2023-10-28 13:16:18",
            "tag": "short"
        },
        {
            "weights": [
                0.04442653621748104,
                -1.1492030566509346,
                0.20496544301150652
            ],
            "bias": -1.9794535552185328,
            "time": "2023-10-28 13:17:04",
            "tag": "short"
        },
        {
            "weights": [
                -58.49408512945905,
                -123.92405252274342,
                -315.79511750569526
            ],
            "bias": -79.08295615606747,
            "time": "2023-10-28 13:21:30",
            "tag": "full"
        },
        {
            "weights": [
                8.260551334453234,
                -10.798537748848853,
                0.18825679486126265
            ],
            "bias": -0.6925950679257415,
            "time": "2023-10-28 13:36:23",
            "tag": "full"
        },
        {
            "weights": [
                -6.656086209447736,
                -36.935225141024944,
                -2.1201469221041833
            ],
            "bias": -13.44414598775974,
            "time": "2023-10-28 14:00:31",
            "tag": "full"
        },
        {
            "weights": [
                -10.443929988140715,
                -41.62349613000363,
                -34.739650586126665
            ],
            "bias": -18.350346661428006,
            "time": "2023-10-28 14:31:46",
            "tag": "full"
        },
        {
            "weights": [
                -36.27718176322507,
                -69.68123774833035,
                -207.02517439276596
            ],
            "bias": -48.06407380297568,
            "time": "2023-10-28 14:40:35",
            "tag": "full"
        },
        {
            "weights": [
                -0.24904246320115248,
                -0.8579148074806897,
                0.8192522702315571,
                -0.11142946174832258,
                -1.707191112941606
            ],
            "bias": 0.027208684919607637,
            "time": "2023-10-28 15:04:40",
            "tag": "short"
        }
    ]
}