{
    "models": [
        {
            "weights": [
                0.08776567026681634,
                -1.6924312400318184,
                -0.08426406579619677
            ],
            "bias": -1.7922302721313905,
            "time": "2023-10-28 13:16:18",
            "tag": "short"
        },
        {
            "weights": [
                0.04442653621748104,
                -1.1492030566509346,
                0.20496544301150652
            ],
            "bias": -1.9794535552185328,
            "time": "2023-10-28 13:17:04",
            "tag": "short"
        },
        {
            "weights": [
                -58.49408512945905,
                -123.92405252274342,
                -315.79511750569526
            ],
            "bias": -79.08295615606747,
            "time": "2023-10-28 13:21:30",
            "tag": "full"
        },
        {
            "weights": [
                8.260551334453234,
                -10.798537748848853,
                0.18825679486126265
            ],
            "bias": -0.6925950679257415,
            "time": "2023-10-28 13:36:23",
            "tag": "full"
        },
        {
            "weights": [
                -6.656086209447736,
                -36.935225141024944,
                -2.1201469221041833
            ],
            "bias": -13.44414598775974,
            "time": "2023-10-28 14:00:31",
            "tag": "full"
        },
        {
            "weights": [
                -10.443929988140715,
                -41.62349613000363,
                -34.739650586126665
            ],
            "bias": -18.350346661428006,
            "time": "2023-10-28 14:31:46",
            "tag": "full"
        },
        {
            "weights": [
                -36.27718176322507,
                -69.68123774833035,
                -207.02517439276596
            ],
            "bias": -48.06407380297568,
            "time": "2023-10-28 14:40:35",
            "tag": "full"
        },
        {
            "weights": [
                -0.24904246320115248,
                -0.8579148074806897,
                0.8192522702315571,
                -0.11142946174832258,
                -1.707191112941606
            ],
            "bias": 0.027208684919607637,
            "time": "2023-10-28 15:04:40",
            "tag": "short"
        },
        {
            "weights": [
                49.61188454100313,
                -141.3964505786412,
                42.59699425442386,
                -142.24644432947514,
                -444.67789585597626
            ],
            "bias": 86.01068998945598,
            "time": "2023-10-28 15:35:20",
            "tag": "full"
        },
        {
            "weights": [
                54.137716933905054,
                -103.23602067264176,
                46.725396160998045,
                -101.95167980676516,
                -570.5367029300812
            ],
            "bias": 89.80943895491026,
            "time": "2023-10-28 16:19:10",
            "tag": "full"
        },
        {
            "weights": [
                11.240178932045124,
                30.101480463390466,
                15.029299439527986,
                -4.070903329382844,
                -27.315805526163302
            ],
            "bias": 27.61729457791999,
            "time": "2023-10-28 16:22:37",
            "tag": "full"
        },
        {
            "weights": [
                -12.849849394974783,
                -104.77654162738878,
                -12.29858889394934,
                -100.62096238906784,
                -569.1427905712331
            ],
            "bias": -12.308428523093042,
            "time": "2023-10-28 16:32:06",
            "tag": "full"
        },
        {
            "weights": [
                -3.5047631464410016,
                -9.188009256029616,
                -4.855487117557026,
                52.16176362263762,
                25.43883349334139
            ],
            "bias": -9.348191527915567,
            "time": "2023-10-28 16:37:25",
            "tag": "full"
        },
        {
            "weights": [
                -0.7025900453239381,
                -5.559590070381846,
                -0.8717977137202527,
                5.651958234344424
            ],
            "bias": -1.314154811257521,
            "time": "2023-10-28 16:44:46",
            "tag": "full"
        },
        {
            "weights": [
                -0.44678746247285583,
                -2.320852508760887,
                -0.6406704945458609,
                2.3754953068542224
            ],
            "bias": -1.7483846432660293,
            "time": "2023-10-28 17:14:49",
            "tag": "full"
        },
        {
            "weights": [
                -0.8343778525163482,
                -5.795291745238856,
                -0.6742873103023942,
                5.913169828784092
            ],
            "bias": -1.5047613115539678,
            "time": "2023-10-28 17:18:37",
            "tag": "full"
        },
        {
            "weights": [
                -1363.021268983328,
                -21505.88194584781,
                -2789.8747395649575,
                21459.608283734324
            ],
            "bias": 2889.771497379544,
            "time": "2023-10-28 17:22:41",
            "tag": "full"
        },
        {
            "weights": [
                -1667.2615694776111,
                -21889.05370924422,
                -2787.5308905997595,
                21963.529536879927
            ],
            "bias": 2979.834474987559,
            "time": "2023-10-28 17:26:22",
            "tag": "full"
        },
        {
            "weights": [
                -5996.069942066386,
                -120.90798108158245,
                -20469.561735675514
            ],
            "bias": 13471.208648401785,
            "time": "2023-10-28 17:30:29",
            "tag": "full"
        },
        {
            "weights": [
                1.7775807594049489,
                -0.27379670863313077,
                3.2048622709650023,
                0.5494134318946643
            ],
            "bias": -7.301399294207368,
            "time": "2023-10-28 17:56:50",
            "tag": "full"
        },
        {
            "weights": [
                -7.3427504412904065,
                -65.05286913213384,
                -7.107173270412546,
                -36.82846955139701
            ],
            "bias": -7.715073574219405,
            "time": "2023-10-28 18:03:12",
            "tag": "full",
            "learning_rate": 0.001,
            "epoch": 1000,
            "feature_count": 4,
            "batch_size": 100,
            "early_stop": 2,
            "lambda": 0.4
        }
    ]
}